<?xml version="1.0"?>
<opencv_storage>
<cascade>
  <stageType>BOOST</stageType>
  <featureType>HAAR</featureType>
  <height>44</height>
  <width>70</width>
  <stageParams>
    <boostType>GAB</boostType>
    <minHitRate>9.9900001287460327e-001</minHitRate>
    <maxFalseAlarm>5.0000000000000000e-001</maxFalseAlarm>
    <weightTrimRate>9.4999999999999996e-001</weightTrimRate>
    <maxDepth>1</maxDepth>
    <maxWeakCount>100</maxWeakCount></stageParams>
  <featureParams>
    <maxCatCount>0</maxCatCount>
    <featSize>1</featSize>
    <mode>ALL</mode></featureParams>
  <stageNum>20</stageNum>
  <stages>
    <!-- stage 0 -->
    <_>
      <maxWeakCount>1</maxWeakCount>
      <stageThreshold>9.6270853281021118e-001</stageThreshold>
      <weakClassifiers>
        <_>
          <internalNodes>
            0 -1 19 1.1433681473135948e-002</internalNodes>
          <leafValues>
            -1. 9.6270853281021118e-001</leafValues></_></weakClassifiers></_>
    <!-- stage 1 -->
    <_>
      <maxWeakCount>1</maxWeakCount>
      <stageThreshold>9.2307692766189575e-001</stageThreshold>
      <weakClassifiers>
        <_>
          <internalNodes>
            0 -1 6 3.9408270269632339e-002</internalNodes>
          <leafValues>
            9.2307692766189575e-001 -1.</leafValues></_></weakClassifiers></_>
    <!-- stage 2 -->
    <_>
      <maxWeakCount>1</maxWeakCount>
      <stageThreshold>8.8857412338256836e-001</stageThreshold>
      <weakClassifiers>
        <_>
          <internalNodes>
            0 -1 27 2.4931961670517921e-003</internalNodes>
          <leafValues>
            8.8857412338256836e-001 -1.</leafValues></_></weakClassifiers></_>
    <!-- stage 3 -->
    <_>
      <maxWeakCount>1</maxWeakCount>
      <stageThreshold>8.9933520555496216e-001</stageThreshold>
      <weakClassifiers>
        <_>
          <internalNodes>
            0 -1 37 1.1442667528172024e-005</internalNodes>
          <leafValues>
            -1. 8.9933520555496216e-001</leafValues></_></weakClassifiers></_>
    <!-- stage 4 -->
    <_>
      <maxWeakCount>1</maxWeakCount>
      <stageThreshold>8.9933520555496216e-001</stageThreshold>
      <weakClassifiers>
        <_>
          <internalNodes>
            0 -1 33 -9.5773444627411664e-005</internalNodes>
          <leafValues>
            -1. 8.9933520555496216e-001</leafValues></_></weakClassifiers></_>
    <!-- stage 5 -->
    <_>
      <maxWeakCount>1</maxWeakCount>
      <stageThreshold>8.6915886402130127e-001</stageThreshold>
      <weakClassifiers>
        <_>
          <internalNodes>
            0 -1 28 3.3488468034192920e-004</internalNodes>
          <leafValues>
            8.6915886402130127e-001 -1.</leafValues></_></weakClassifiers></_>
    <!-- stage 6 -->
    <_>
      <maxWeakCount>3</maxWeakCount>
      <stageThreshold>4.5972892642021179e-001</stageThreshold>
      <weakClassifiers>
        <_>
          <internalNodes>
            0 -1 23 1.0668707545846701e-003</internalNodes>
          <leafValues>
            -9.8130840063095093e-001 9.3043476343154907e-001</leafValues></_>
        <_>
          <internalNodes>
            0 -1 17 8.1748962402343750e-003</internalNodes>
          <leafValues>
            7.7356302738189697e-001 -9.7103846073150635e-001</leafValues></_>
        <_>
          <internalNodes>
            0 -1 1 -2.0064250566065311e-004</internalNodes>
          <leafValues>
            -8.9434355497360229e-001 6.6747432947158813e-001</leafValues></_></weakClassifiers></_>
    <!-- stage 7 -->
    <_>
      <maxWeakCount>1</maxWeakCount>
      <stageThreshold>8.9035916328430176e-001</stageThreshold>
      <weakClassifiers>
        <_>
          <internalNodes>
            0 -1 28 -3.4085003426298499e-004</internalNodes>
          <leafValues>
            -1. 8.9035916328430176e-001</leafValues></_></weakClassifiers></_>
    <!-- stage 8 -->
    <_>
      <maxWeakCount>6</maxWeakCount>
      <stageThreshold>-3.9920487999916077e-001</stageThreshold>
      <weakClassifiers>
        <_>
          <internalNodes>
            0 -1 5 2.1123506128787994e-002</internalNodes>
          <leafValues>
            8.6046510934829712e-001 -1.</leafValues></_>
        <_>
          <internalNodes>
            0 -1 4 -5.9158723801374435e-002</internalNodes>
          <leafValues>
            -9.2512935400009155e-001 7.1859776973724365e-001</leafValues></_>
        <_>
          <internalNodes>
            0 -1 51 -5.3778639994561672e-005</internalNodes>
          <leafValues>
            -8.5791355371475220e-001 3.4228092432022095e-001</leafValues></_>
        <_>
          <internalNodes>
            0 -1 32 9.1477390378713608e-003</internalNodes>
          <leafValues>
            -3.8851332664489746e-001 8.1467586755752563e-001</leafValues></_>
        <_>
          <internalNodes>
            0 -1 14 -1.3794545084238052e-002</internalNodes>
          <leafValues>
            6.8122184276580811e-001 -5.4977393150329590e-001</leafValues></_>
        <_>
          <internalNodes>
            0 -1 3 -5.6628234684467316e-002</internalNodes>
          <leafValues>
            -9.6953010559082031e-001 3.3782276511192322e-001</leafValues></_></weakClassifiers></_>
    <!-- stage 9 -->
    <_>
      <maxWeakCount>1</maxWeakCount>
      <stageThreshold>9.1570883989334106e-001</stageThreshold>
      <weakClassifiers>
        <_>
          <internalNodes>
            0 -1 29 1.1627462299657054e-005</internalNodes>
          <leafValues>
            -1. 9.1570883989334106e-001</leafValues></_></weakClassifiers></_>
    <!-- stage 10 -->
    <_>
      <maxWeakCount>1</maxWeakCount>
      <stageThreshold>8.8323915004730225e-001</stageThreshold>
      <weakClassifiers>
        <_>
          <internalNodes>
            0 -1 43 7.8043376561254263e-005</internalNodes>
          <leafValues>
            8.8323915004730225e-001 -1.</leafValues></_></weakClassifiers></_>
    <!-- stage 11 -->
    <_>
      <maxWeakCount>4</maxWeakCount>
      <stageThreshold>-3.4018889069557190e-002</stageThreshold>
      <weakClassifiers>
        <_>
          <internalNodes>
            0 -1 7 -4.3286658823490143e-002</internalNodes>
          <leafValues>
            -9.4594591856002808e-001 8.6891382932662964e-001</leafValues></_>
        <_>
          <internalNodes>
            0 -1 11 1.7786886543035507e-002</internalNodes>
          <leafValues>
            6.6142350435256958e-001 -9.3978601694107056e-001</leafValues></_>
        <_>
          <internalNodes>
            0 -1 10 1.1536624515429139e-004</internalNodes>
          <leafValues>
            -6.0291343927383423e-001 5.5710119009017944e-001</leafValues></_>
        <_>
          <internalNodes>
            0 -1 36 5.2480136218946427e-006</internalNodes>
          <leafValues>
            -4.3279561400413513e-001 8.5341703891754150e-001</leafValues></_></weakClassifiers></_>
    <!-- stage 12 -->
    <_>
      <maxWeakCount>3</maxWeakCount>
      <stageThreshold>-5.1377660036087036e-001</stageThreshold>
      <weakClassifiers>
        <_>
          <internalNodes>
            0 -1 30 1.4070450561121106e-004</internalNodes>
          <leafValues>
            8.9895141124725342e-001 -9.1397851705551147e-001</leafValues></_>
        <_>
          <internalNodes>
            0 -1 38 7.4475057772360742e-005</internalNodes>
          <leafValues>
            6.5294498205184937e-001 -9.1187405586242676e-001</leafValues></_>
        <_>
          <internalNodes>
            0 -1 8 -5.9424241953820456e-006</internalNodes>
          <leafValues>
            7.6683682203292847e-001 -5.0085395574569702e-001</leafValues></_></weakClassifiers></_>
    <!-- stage 13 -->
    <_>
      <maxWeakCount>4</maxWeakCount>
      <stageThreshold>-8.7971352040767670e-002</stageThreshold>
      <weakClassifiers>
        <_>
          <internalNodes>
            0 -1 9 3.7019439041614532e-002</internalNodes>
          <leafValues>
            8.4458833932876587e-001 -9.0163934230804443e-001</leafValues></_>
        <_>
          <internalNodes>
            0 -1 12 2.1406436339020729e-002</internalNodes>
          <leafValues>
            -9.2515349388122559e-001 6.0313391685485840e-001</leafValues></_>
        <_>
          <internalNodes>
            0 -1 46 5.0051612561219372e-006</internalNodes>
          <leafValues>
            -4.9482151865959167e-001 7.1404427289962769e-001</leafValues></_>
        <_>
          <internalNodes>
            0 -1 47 -5.3660951380152255e-006</internalNodes>
          <leafValues>
            7.0535558462142944e-001 -4.6971076726913452e-001</leafValues></_></weakClassifiers></_>
    <!-- stage 14 -->
    <_>
      <maxWeakCount>5</maxWeakCount>
      <stageThreshold>-2.0951549708843231e-001</stageThreshold>
      <weakClassifiers>
        <_>
          <internalNodes>
            0 -1 26 1.0699424892663956e-003</internalNodes>
          <leafValues>
            -1. 8.4162062406539917e-001</leafValues></_>
        <_>
          <internalNodes>
            0 -1 2 1.1261660984018818e-004</internalNodes>
          <leafValues>
            5.7181078195571899e-001 -8.8337463140487671e-001</leafValues></_>
        <_>
          <internalNodes>
            0 -1 18 5.0936814659507945e-006</internalNodes>
          <leafValues>
            -4.2399659752845764e-001 7.8017640113830566e-001</leafValues></_>
        <_>
          <internalNodes>
            0 -1 40 -3.2379804179072380e-003</internalNodes>
          <leafValues>
            7.7910006046295166e-001 -3.9340636134147644e-001</leafValues></_>
        <_>
          <internalNodes>
            0 -1 16 -3.1281462870538235e-003</internalNodes>
          <leafValues>
            8.7592309713363647e-001 -5.2286499738693237e-001</leafValues></_></weakClassifiers></_>
    <!-- stage 15 -->
    <_>
      <maxWeakCount>5</maxWeakCount>
      <stageThreshold>1.2012226507067680e-002</stageThreshold>
      <weakClassifiers>
        <_>
          <internalNodes>
            0 -1 23 1.0645319707691669e-003</internalNodes>
          <leafValues>
            -9.6610170602798462e-001 8.4487533569335938e-001</leafValues></_>
        <_>
          <internalNodes>
            0 -1 52 -2.0807480905205011e-004</internalNodes>
          <leafValues>
            -6.9355666637420654e-001 6.8463540077209473e-001</leafValues></_>
        <_>
          <internalNodes>
            0 -1 45 5.5742530093993992e-006</internalNodes>
          <leafValues>
            -4.4376772642135620e-001 7.5566357374191284e-001</leafValues></_>
        <_>
          <internalNodes>
            0 -1 35 -5.7726451814232860e-006</internalNodes>
          <leafValues>
            8.9946341514587402e-001 -4.1895252466201782e-001</leafValues></_>
        <_>
          <internalNodes>
            0 -1 42 5.7466909311187919e-006</internalNodes>
          <leafValues>
            -4.7601753473281860e-001 8.0041015148162842e-001</leafValues></_></weakClassifiers></_>
    <!-- stage 16 -->
    <_>
      <maxWeakCount>3</maxWeakCount>
      <stageThreshold>2.7235439419746399e-001</stageThreshold>
      <weakClassifiers>
        <_>
          <internalNodes>
            0 -1 24 9.8274154588580132e-003</internalNodes>
          <leafValues>
            8.4458833932876587e-001 -9.0163934230804443e-001</leafValues></_>
        <_>
          <internalNodes>
            0 -1 41 8.4272498497739434e-005</internalNodes>
          <leafValues>
            5.9688758850097656e-001 -9.4184798002243042e-001</leafValues></_>
        <_>
          <internalNodes>
            0 -1 43 5.1770593927358277e-006</internalNodes>
          <leafValues>
            -4.9504342675209045e-001 5.7710611820220947e-001</leafValues></_></weakClassifiers></_>
    <!-- stage 17 -->
    <_>
      <maxWeakCount>5</maxWeakCount>
      <stageThreshold>-9.2060297727584839e-002</stageThreshold>
      <weakClassifiers>
        <_>
          <internalNodes>
            0 -1 50 -1.3808798394165933e-004</internalNodes>
          <leafValues>
            -9.2000001668930054e-001 8.2783883810043335e-001</leafValues></_>
        <_>
          <internalNodes>
            0 -1 19 1.3495118357241154e-002</internalNodes>
          <leafValues>
            -8.1065154075622559e-001 5.6735461950302124e-001</leafValues></_>
        <_>
          <internalNodes>
            0 -1 34 -1.0873894207179546e-003</internalNodes>
          <leafValues>
            8.6726945638656616e-001 -3.2242715358734131e-001</leafValues></_>
        <_>
          <internalNodes>
            0 -1 20 -3.5263795871287584e-004</internalNodes>
          <leafValues>
            8.0194216966629028e-001 -4.4557166099548340e-001</leafValues></_>
        <_>
          <internalNodes>
            0 -1 25 -5.5657878874626476e-006</internalNodes>
          <leafValues>
            6.5875124931335449e-001 -4.2601579427719116e-001</leafValues></_></weakClassifiers></_>
    <!-- stage 18 -->
    <_>
      <maxWeakCount>5</maxWeakCount>
      <stageThreshold>-2.2657871246337891e-002</stageThreshold>
      <weakClassifiers>
        <_>
          <internalNodes>
            0 -1 15 -1.2071451172232628e-002</internalNodes>
          <leafValues>
            -1. 8.3318054676055908e-001</leafValues></_>
        <_>
          <internalNodes>
            0 -1 49 -7.7596399933099747e-003</internalNodes>
          <leafValues>
            -8.8452452421188354e-001 5.5124551057815552e-001</leafValues></_>
        <_>
          <internalNodes>
            0 -1 44 1.8584344070404768e-004</internalNodes>
          <leafValues>
            -3.6604350805282593e-001 8.0226933956146240e-001</leafValues></_>
        <_>
          <internalNodes>
            0 -1 31 1.6764272004365921e-004</internalNodes>
          <leafValues>
            -3.6228385567665100e-001 7.6231890916824341e-001</leafValues></_>
        <_>
          <internalNodes>
            0 -1 22 -1.8818872049450874e-003</internalNodes>
          <leafValues>
            8.6373656988143921e-001 -3.6758932471275330e-001</leafValues></_></weakClassifiers></_>
    <!-- stage 19 -->
    <_>
      <maxWeakCount>5</maxWeakCount>
      <stageThreshold>-1.8161673843860626e-001</stageThreshold>
      <weakClassifiers>
        <_>
          <internalNodes>
            0 -1 39 4.4832024723291397e-002</internalNodes>
          <leafValues>
            8.4147465229034424e-001 -9.6491229534149170e-001</leafValues></_>
        <_>
          <internalNodes>
            0 -1 13 -1.0460408031940460e-001</internalNodes>
          <leafValues>
            -9.3025475740432739e-001 5.7531726360321045e-001</leafValues></_>
        <_>
          <internalNodes>
            0 -1 0 1.3107520062476397e-003</internalNodes>
          <leafValues>
            2.9465061426162720e-001 -8.1441712379455566e-001</leafValues></_>
        <_>
          <internalNodes>
            0 -1 48 -7.2720245225355029e-004</internalNodes>
          <leafValues>
            8.1035453081130981e-001 -3.6835682392120361e-001</leafValues></_>
        <_>
          <internalNodes>
            0 -1 21 -5.1179777074139565e-006</internalNodes>
          <leafValues>
            6.4916837215423584e-001 -4.1563469171524048e-001</leafValues></_></weakClassifiers></_></stages>
  <features>
    <_>
      <rects>
        <_>
          0 0 8 11 -1.</_>
        <_>
          4 0 4 11 2.</_></rects>
      <tilted>0</tilted></_>
    <_>
      <rects>
        <_>
          1 35 1 6 -1.</_>
        <_>
          1 38 1 3 2.</_></rects>
      <tilted>0</tilted></_>
    <_>
      <rects>
        <_>
          3 40 2 2 -1.</_>
        <_>
          3 40 2 1 2.</_></rects>
      <tilted>1</tilted></_>
    <_>
      <rects>
        <_>
          10 12 26 26 -1.</_>
        <_>
          23 12 13 26 2.</_></rects>
      <tilted>0</tilted></_>
    <_>
      <rects>
        <_>
          11 7 48 30 -1.</_>
        <_>
          27 17 16 10 9.</_></rects>
      <tilted>0</tilted></_>
    <_>
      <rects>
        <_>
          17 4 36 36 -1.</_>
        <_>
          29 16 12 12 9.</_></rects>
      <tilted>0</tilted></_>
    <_>
      <rects>
        <_>
          17 16 36 12 -1.</_>
        <_>
          29 20 12 4 9.</_></rects>
      <tilted>0</tilted></_>
    <_>
      <rects>
        <_>
          20 1 30 42 -1.</_>
        <_>
          30 15 10 14 9.</_></rects>
      <tilted>0</tilted></_>
    <_>
      <rects>
        <_>
          22 11 14 2 -1.</_>
        <_>
          22 11 7 1 2.</_>
        <_>
          29 12 7 1 2.</_></rects>
      <tilted>0</tilted></_>
    <_>
      <rects>
        <_>
          23 10 24 24 -1.</_>
        <_>
          31 18 8 8 9.</_></rects>
      <tilted>0</tilted></_>
    <_>
      <rects>
        <_>
          23 19 4 16 -1.</_>
        <_>
          23 19 2 8 2.</_>
        <_>
          25 27 2 8 2.</_></rects>
      <tilted>0</tilted></_>
    <_>
      <rects>
        <_>
          26 3 19 40 -1.</_>
        <_>
          26 13 19 20 2.</_></rects>
      <tilted>0</tilted></_>
    <_>
      <rects>
        <_>
          26 13 18 18 -1.</_>
        <_>
          32 19 6 6 9.</_></rects>
      <tilted>0</tilted></_>
    <_>
      <rects>
        <_>
          27 11 42 32 -1.</_>
        <_>
          48 11 21 32 2.</_></rects>
      <tilted>0</tilted></_>
    <_>
      <rects>
        <_>
          27 20 15 15 -1.</_>
        <_>
          32 25 5 5 9.</_></rects>
      <tilted>0</tilted></_>
    <_>
      <rects>
        <_>
          27 22 10 22 -1.</_>
        <_>
          27 33 10 11 2.</_></rects>
      <tilted>0</tilted></_>
    <_>
      <rects>
        <_>
          28 16 9 9 -1.</_>
        <_>
          31 19 3 3 9.</_></rects>
      <tilted>0</tilted></_>
    <_>
      <rects>
        <_>
          28 16 8 14 -1.</_>
        <_>
          28 16 8 7 2.</_></rects>
      <tilted>1</tilted></_>
    <_>
      <rects>
        <_>
          29 8 2 1 -1.</_>
        <_>
          30 8 1 1 2.</_></rects>
      <tilted>0</tilted></_>
    <_>
      <rects>
        <_>
          29 16 12 12 -1.</_>
        <_>
          33 20 4 4 9.</_></rects>
      <tilted>0</tilted></_>
    <_>
      <rects>
        <_>
          29 17 9 1 -1.</_>
        <_>
          32 20 3 1 3.</_></rects>
      <tilted>1</tilted></_>
    <_>
      <rects>
        <_>
          30 19 2 2 -1.</_>
        <_>
          31 19 1 2 2.</_></rects>
      <tilted>0</tilted></_>
    <_>
      <rects>
        <_>
          31 18 12 3 -1.</_>
        <_>
          35 19 4 1 9.</_></rects>
      <tilted>0</tilted></_>
    <_>
      <rects>
        <_>
          31 19 8 6 -1.</_>
        <_>
          33 19 4 6 2.</_></rects>
      <tilted>0</tilted></_>
    <_>
      <rects>
        <_>
          32 0 12 20 -1.</_>
        <_>
          32 10 12 10 2.</_></rects>
      <tilted>0</tilted></_>
    <_>
      <rects>
        <_>
          32 18 4 1 -1.</_>
        <_>
          34 18 2 1 2.</_></rects>
      <tilted>0</tilted></_>
    <_>
      <rects>
        <_>
          32 18 6 8 -1.</_>
        <_>
          32 20 6 4 2.</_></rects>
      <tilted>0</tilted></_>
    <_>
      <rects>
        <_>
          32 19 6 6 -1.</_>
        <_>
          34 21 2 2 9.</_></rects>
      <tilted>0</tilted></_>
    <_>
      <rects>
        <_>
          32 19 6 6 -1.</_>
        <_>
          32 19 3 3 2.</_>
        <_>
          35 22 3 3 2.</_></rects>
      <tilted>0</tilted></_>
    <_>
      <rects>
        <_>
          32 20 6 3 -1.</_>
        <_>
          34 20 2 3 3.</_></rects>
      <tilted>0</tilted></_>
    <_>
      <rects>
        <_>
          32 21 3 2 -1.</_>
        <_>
          33 21 1 2 3.</_></rects>
      <tilted>0</tilted></_>
    <_>
      <rects>
        <_>
          33 11 1 8 -1.</_>
        <_>
          33 13 1 4 2.</_></rects>
      <tilted>0</tilted></_>
    <_>
      <rects>
        <_>
          33 17 6 12 -1.</_>
        <_>
          35 21 2 4 9.</_></rects>
      <tilted>0</tilted></_>
    <_>
      <rects>
        <_>
          33 18 4 8 -1.</_>
        <_>
          34 18 2 8 2.</_></rects>
      <tilted>0</tilted></_>
    <_>
      <rects>
        <_>
          33 18 9 9 -1.</_>
        <_>
          36 21 3 3 9.</_></rects>
      <tilted>0</tilted></_>
    <_>
      <rects>
        <_>
          33 21 2 2 -1.</_>
        <_>
          34 21 1 2 2.</_></rects>
      <tilted>0</tilted></_>
    <_>
      <rects>
        <_>
          33 24 1 2 -1.</_>
        <_>
          33 25 1 1 2.</_></rects>
      <tilted>0</tilted></_>
    <_>
      <rects>
        <_>
          34 19 2 6 -1.</_>
        <_>
          34 21 2 2 3.</_></rects>
      <tilted>0</tilted></_>
    <_>
      <rects>
        <_>
          34 22 1 3 -1.</_>
        <_>
          34 23 1 1 3.</_></rects>
      <tilted>0</tilted></_>
    <_>
      <rects>
        <_>
          35 10 26 19 -1.</_>
        <_>
          48 10 13 19 2.</_></rects>
      <tilted>0</tilted></_>
    <_>
      <rects>
        <_>
          35 18 6 12 -1.</_>
        <_>
          37 22 2 4 9.</_></rects>
      <tilted>0</tilted></_>
    <_>
      <rects>
        <_>
          35 19 1 3 -1.</_>
        <_>
          35 20 1 1 3.</_></rects>
      <tilted>0</tilted></_>
    <_>
      <rects>
        <_>
          35 22 2 1 -1.</_>
        <_>
          36 22 1 1 2.</_></rects>
      <tilted>0</tilted></_>
    <_>
      <rects>
        <_>
          35 22 3 1 -1.</_>
        <_>
          36 22 1 1 3.</_></rects>
      <tilted>0</tilted></_>
    <_>
      <rects>
        <_>
          35 25 1 8 -1.</_>
        <_>
          35 27 1 4 2.</_></rects>
      <tilted>0</tilted></_>
    <_>
      <rects>
        <_>
          38 6 2 3 -1.</_>
        <_>
          39 6 1 3 2.</_></rects>
      <tilted>0</tilted></_>
    <_>
      <rects>
        <_>
          43 10 2 2 -1.</_>
        <_>
          43 11 2 1 2.</_></rects>
      <tilted>0</tilted></_>
    <_>
      <rects>
        <_>
          43 21 2 5 -1.</_>
        <_>
          44 21 1 5 2.</_></rects>
      <tilted>0</tilted></_>
    <_>
      <rects>
        <_>
          44 24 3 6 -1.</_>
        <_>
          45 25 1 6 3.</_></rects>
      <tilted>1</tilted></_>
    <_>
      <rects>
        <_>
          49 7 7 14 -1.</_>
        <_>
          49 7 7 7 2.</_></rects>
      <tilted>1</tilted></_>
    <_>
      <rects>
        <_>
          64 43 6 1 -1.</_>
        <_>
          67 43 3 1 2.</_></rects>
      <tilted>0</tilted></_>
    <_>
      <rects>
        <_>
          66 0 4 1 -1.</_>
        <_>
          68 0 2 1 2.</_></rects>
      <tilted>0</tilted></_>
    <_>
      <rects>
        <_>
          69 32 1 12 -1.</_>
        <_>
          69 38 1 6 2.</_></rects>
      <tilted>0</tilted></_></features></cascade>
</opencv_storage>
