<?xml version="1.0"?>
<opencv_storage>
<cascade>
  <stageType>BOOST</stageType>
  <featureType>HAAR</featureType>
  <height>44</height>
  <width>70</width>
  <stageParams>
    <boostType>GAB</boostType>
    <minHitRate>9.9900001287460327e-001</minHitRate>
    <maxFalseAlarm>5.0000000000000000e-001</maxFalseAlarm>
    <weightTrimRate>9.4999999999999996e-001</weightTrimRate>
    <maxDepth>1</maxDepth>
    <maxWeakCount>100</maxWeakCount></stageParams>
  <featureParams>
    <maxCatCount>0</maxCatCount>
    <featSize>1</featSize>
    <mode>ALL</mode></featureParams>
  <stageNum>17</stageNum>
  <stages>
    <!-- stage 0 -->
    <_>
      <maxWeakCount>1</maxWeakCount>
      <stageThreshold>8.9573460817337036e-001</stageThreshold>
      <weakClassifiers>
        <_>
          <internalNodes>
            0 -1 24 8.4968894952908158e-004</internalNodes>
          <leafValues>
            -1. 8.9573460817337036e-001</leafValues></_></weakClassifiers></_>
    <!-- stage 1 -->
    <_>
      <maxWeakCount>1</maxWeakCount>
      <stageThreshold>7.4672490358352661e-001</stageThreshold>
      <weakClassifiers>
        <_>
          <internalNodes>
            0 -1 28 1.0339338332414627e-003</internalNodes>
          <leafValues>
            -1. 7.4672490358352661e-001</leafValues></_></weakClassifiers></_>
    <!-- stage 2 -->
    <_>
      <maxWeakCount>1</maxWeakCount>
      <stageThreshold>8.0180180072784424e-001</stageThreshold>
      <weakClassifiers>
        <_>
          <internalNodes>
            0 -1 29 2.4167415685951710e-003</internalNodes>
          <leafValues>
            8.0180180072784424e-001 -1.</leafValues></_></weakClassifiers></_>
    <!-- stage 3 -->
    <_>
      <maxWeakCount>4</maxWeakCount>
      <stageThreshold>1.5236879885196686e-001</stageThreshold>
      <weakClassifiers>
        <_>
          <internalNodes>
            0 -1 8 3.1981222331523895e-002</internalNodes>
          <leafValues>
            7.4617069959640503e-001 -9.7647058963775635e-001</leafValues></_>
        <_>
          <internalNodes>
            0 -1 38 5.0001817726297304e-005</internalNodes>
          <leafValues>
            -1. 4.9913749098777771e-001</leafValues></_>
        <_>
          <internalNodes>
            0 -1 12 -2.4111443199217319e-003</internalNodes>
          <leafValues>
            -9.5711779594421387e-001 3.5438388586044312e-001</leafValues></_>
        <_>
          <internalNodes>
            0 -1 6 2.0821582525968552e-002</internalNodes>
          <leafValues>
            2.7531799674034119e-001 -9.8009431362152100e-001</leafValues></_></weakClassifiers></_>
    <!-- stage 4 -->
    <_>
      <maxWeakCount>4</maxWeakCount>
      <stageThreshold>5.4673689603805542e-001</stageThreshold>
      <weakClassifiers>
        <_>
          <internalNodes>
            0 -1 32 5.5656096265011001e-006</internalNodes>
          <leafValues>
            -9.7701150178909302e-001 7.5384616851806641e-001</leafValues></_>
        <_>
          <internalNodes>
            0 -1 7 -2.1481156349182129e-002</internalNodes>
          <leafValues>
            -9.8915618658065796e-001 4.8968783020973206e-001</leafValues></_>
        <_>
          <internalNodes>
            0 -1 25 -7.2756985900923610e-005</internalNodes>
          <leafValues>
            -9.6916419267654419e-001 3.3073386549949646e-001</leafValues></_>
        <_>
          <internalNodes>
            0 -1 47 -4.1006874198501464e-006</internalNodes>
          <leafValues>
            7.0332670211791992e-001 -5.0719124078750610e-001</leafValues></_></weakClassifiers></_>
    <!-- stage 5 -->
    <_>
      <maxWeakCount>1</maxWeakCount>
      <stageThreshold>7.2043013572692871e-001</stageThreshold>
      <weakClassifiers>
        <_>
          <internalNodes>
            0 -1 35 -1.0314752580597997e-004</internalNodes>
          <leafValues>
            -1. 7.2043013572692871e-001</leafValues></_></weakClassifiers></_>
    <!-- stage 6 -->
    <_>
      <maxWeakCount>1</maxWeakCount>
      <stageThreshold>7.0212763547897339e-001</stageThreshold>
      <weakClassifiers>
        <_>
          <internalNodes>
            0 -1 30 2.9915280174463987e-004</internalNodes>
          <leafValues>
            7.0212763547897339e-001 -1.</leafValues></_></weakClassifiers></_>
    <!-- stage 7 -->
    <_>
      <maxWeakCount>4</maxWeakCount>
      <stageThreshold>-1.6673143208026886e-001</stageThreshold>
      <weakClassifiers>
        <_>
          <internalNodes>
            0 -1 41 4.1403759496461134e-006</internalNodes>
          <leafValues>
            -9.0625000000000000e-001 6.6108787059783936e-001</leafValues></_>
        <_>
          <internalNodes>
            0 -1 49 9.0028974227607250e-005</internalNodes>
          <leafValues>
            3.8906493782997131e-001 -7.9947698116302490e-001</leafValues></_>
        <_>
          <internalNodes>
            0 -1 10 -4.8472797971044201e-006</internalNodes>
          <leafValues>
            6.5946972370147705e-001 -4.3341904878616333e-001</leafValues></_>
        <_>
          <internalNodes>
            0 -1 19 -1.1652437970042229e-003</internalNodes>
          <leafValues>
            8.3450371026992798e-001 -3.0901607871055603e-001</leafValues></_></weakClassifiers></_>
    <!-- stage 8 -->
    <_>
      <maxWeakCount>5</maxWeakCount>
      <stageThreshold>-4.4549348950386047e-001</stageThreshold>
      <weakClassifiers>
        <_>
          <internalNodes>
            0 -1 42 -1.0714552365243435e-002</internalNodes>
          <leafValues>
            -9.7222220897674561e-001 6.9787234067916870e-001</leafValues></_>
        <_>
          <internalNodes>
            0 -1 43 3.8514494917762931e-006</internalNodes>
          <leafValues>
            -6.3996946811676025e-001 6.9643718004226685e-001</leafValues></_>
        <_>
          <internalNodes>
            0 -1 31 5.9480312302184757e-006</internalNodes>
          <leafValues>
            -6.8389523029327393e-001 6.6865622997283936e-001</leafValues></_>
        <_>
          <internalNodes>
            0 -1 40 4.3262198232696392e-006</internalNodes>
          <leafValues>
            -4.6260598301887512e-001 1.</leafValues></_>
        <_>
          <internalNodes>
            0 -1 34 -4.9170139391208068e-006</internalNodes>
          <leafValues>
            8.7186491489410400e-001 -5.0195801258087158e-001</leafValues></_></weakClassifiers></_>
    <!-- stage 9 -->
    <_>
      <maxWeakCount>1</maxWeakCount>
      <stageThreshold>7.3913043737411499e-001</stageThreshold>
      <weakClassifiers>
        <_>
          <internalNodes>
            0 -1 30 -3.3233387512154877e-004</internalNodes>
          <leafValues>
            -1. 7.3913043737411499e-001</leafValues></_></weakClassifiers></_>
    <!-- stage 10 -->
    <_>
      <maxWeakCount>5</maxWeakCount>
      <stageThreshold>-9.2974426224827766e-003</stageThreshold>
      <weakClassifiers>
        <_>
          <internalNodes>
            0 -1 18 1.1613106355071068e-002</internalNodes>
          <leafValues>
            6.5631467103958130e-001 -1.</leafValues></_>
        <_>
          <internalNodes>
            0 -1 46 -4.6056879909883719e-006</internalNodes>
          <leafValues>
            6.9362682104110718e-001 -4.0637177228927612e-001</leafValues></_>
        <_>
          <internalNodes>
            0 -1 15 4.3262198232696392e-006</internalNodes>
          <leafValues>
            -4.0824839472770691e-001 7.1368193626403809e-001</leafValues></_>
        <_>
          <internalNodes>
            0 -1 44 4.1006874198501464e-006</internalNodes>
          <leafValues>
            -4.6398660540580750e-001 6.7756289243698120e-001</leafValues></_>
        <_>
          <internalNodes>
            0 -1 11 -5.4054066822573077e-006</internalNodes>
          <leafValues>
            6.2442523241043091e-001 -4.8700395226478577e-001</leafValues></_></weakClassifiers></_>
    <!-- stage 11 -->
    <_>
      <maxWeakCount>3</maxWeakCount>
      <stageThreshold>3.4318184852600098e-001</stageThreshold>
      <weakClassifiers>
        <_>
          <internalNodes>
            0 -1 4 -1.9474525470286608e-003</internalNodes>
          <leafValues>
            -9.4029849767684937e-001 6.7578947544097900e-001</leafValues></_>
        <_>
          <internalNodes>
            0 -1 9 3.5348284989595413e-002</internalNodes>
          <leafValues>
            3.6119490861892700e-001 -9.7481393814086914e-001</leafValues></_>
        <_>
          <internalNodes>
            0 -1 27 -4.4631789205595851e-004</internalNodes>
          <leafValues>
            9.2228543758392334e-001 -3.3588296175003052e-001</leafValues></_></weakClassifiers></_>
    <!-- stage 12 -->
    <_>
      <maxWeakCount>4</maxWeakCount>
      <stageThreshold>-9.9975585937500000e-002</stageThreshold>
      <weakClassifiers>
        <_>
          <internalNodes>
            0 -1 13 9.3667777255177498e-003</internalNodes>
          <leafValues>
            -1. 6.6666668653488159e-001</leafValues></_>
        <_>
          <internalNodes>
            0 -1 0 1.5554144920315593e-004</internalNodes>
          <leafValues>
            4.3739637732505798e-001 -7.0179802179336548e-001</leafValues></_>
        <_>
          <internalNodes>
            0 -1 14 2.4769112467765808e-002</internalNodes>
          <leafValues>
            -6.8806695938110352e-001 4.1545638442039490e-001</leafValues></_>
        <_>
          <internalNodes>
            0 -1 39 4.3071854634035844e-006</internalNodes>
          <leafValues>
            -4.8030060529708862e-001 6.3855719566345215e-001</leafValues></_></weakClassifiers></_>
    <!-- stage 13 -->
    <_>
      <maxWeakCount>3</maxWeakCount>
      <stageThreshold>2.4227067828178406e-001</stageThreshold>
      <weakClassifiers>
        <_>
          <internalNodes>
            0 -1 37 1.4690651732962579e-004</internalNodes>
          <leafValues>
            6.3934427499771118e-001 -1.</leafValues></_>
        <_>
          <internalNodes>
            0 -1 48 -7.7125029638409615e-003</internalNodes>
          <leafValues>
            -9.5465171337127686e-001 3.6010107398033142e-001</leafValues></_>
        <_>
          <internalNodes>
            0 -1 45 4.5453193706634920e-006</internalNodes>
          <leafValues>
            -5.4140889644622803e-001 5.5757814645767212e-001</leafValues></_></weakClassifiers></_>
    <!-- stage 14 -->
    <_>
      <maxWeakCount>4</maxWeakCount>
      <stageThreshold>1.6165509819984436e-001</stageThreshold>
      <weakClassifiers>
        <_>
          <internalNodes>
            0 -1 5 7.2597805410623550e-003</internalNodes>
          <leafValues>
            6.2601625919342041e-001 -1.</leafValues></_>
        <_>
          <internalNodes>
            0 -1 1 -8.4702596068382263e-002</internalNodes>
          <leafValues>
            -9.8506379127502441e-001 3.5746145248413086e-001</leafValues></_>
        <_>
          <internalNodes>
            0 -1 20 6.5725129097700119e-003</internalNodes>
          <leafValues>
            -3.5232779383659363e-001 9.6435600519180298e-001</leafValues></_>
        <_>
          <internalNodes>
            0 -1 21 -1.8961818423122168e-003</internalNodes>
          <leafValues>
            8.7303042411804199e-001 -3.7237131595611572e-001</leafValues></_></weakClassifiers></_>
    <!-- stage 15 -->
    <_>
      <maxWeakCount>6</maxWeakCount>
      <stageThreshold>-7.2981679439544678e-001</stageThreshold>
      <weakClassifiers>
        <_>
          <internalNodes>
            0 -1 33 -1.2241142394486815e-004</internalNodes>
          <leafValues>
            -9.6226418018341064e-001 6.3190186023712158e-001</leafValues></_>
        <_>
          <internalNodes>
            0 -1 28 1.6747950576245785e-003</internalNodes>
          <leafValues>
            -4.4561150670051575e-001 6.2719577550888062e-001</leafValues></_>
        <_>
          <internalNodes>
            0 -1 3 5.4729888215661049e-003</internalNodes>
          <leafValues>
            -4.5253470540046692e-001 7.1794509887695313e-001</leafValues></_>
        <_>
          <internalNodes>
            0 -1 16 2.8668821323662996e-004</internalNodes>
          <leafValues>
            -5.6061094999313354e-001 6.0844546556472778e-001</leafValues></_>
        <_>
          <internalNodes>
            0 -1 26 4.3071854634035844e-006</internalNodes>
          <leafValues>
            -4.8881024122238159e-001 6.0243034362792969e-001</leafValues></_>
        <_>
          <internalNodes>
            0 -1 36 -3.5670474171638489e-003</internalNodes>
          <leafValues>
            9.2673379182815552e-001 -5.0539183616638184e-001</leafValues></_></weakClassifiers></_>
    <!-- stage 16 -->
    <_>
      <maxWeakCount>5</maxWeakCount>
      <stageThreshold>-6.3562256097793579e-001</stageThreshold>
      <weakClassifiers>
        <_>
          <internalNodes>
            0 -1 2 -1.0438464232720435e-004</internalNodes>
          <leafValues>
            -7.7419352531433105e-001 6.3749998807907104e-001</leafValues></_>
        <_>
          <internalNodes>
            0 -1 24 1.2167177628725767e-003</internalNodes>
          <leafValues>
            -8.1879216432571411e-001 3.4244990348815918e-001</leafValues></_>
        <_>
          <internalNodes>
            0 -1 22 8.9590772986412048e-003</internalNodes>
          <leafValues>
            -3.2520619034767151e-001 7.8837841749191284e-001</leafValues></_>
        <_>
          <internalNodes>
            0 -1 23 -1.1460374807938933e-003</internalNodes>
          <leafValues>
            7.5939917564392090e-001 -4.4926339387893677e-001</leafValues></_>
        <_>
          <internalNodes>
            0 -1 17 9.6630724146962166e-003</internalNodes>
          <leafValues>
            3.2013919949531555e-001 -9.3616932630538940e-001</leafValues></_></weakClassifiers></_></stages>
  <features>
    <_>
      <rects>
        <_>
          0 4 1 8 -1.</_>
        <_>
          0 8 1 4 2.</_></rects>
      <tilted>0</tilted></_>
    <_>
      <rects>
        <_>
          0 30 70 7 -1.</_>
        <_>
          35 30 35 7 2.</_></rects>
      <tilted>0</tilted></_>
    <_>
      <rects>
        <_>
          2 0 2 1 -1.</_>
        <_>
          2 0 1 1 2.</_></rects>
      <tilted>1</tilted></_>
    <_>
      <rects>
        <_>
          9 8 48 33 -1.</_>
        <_>
          25 8 16 33 3.</_></rects>
      <tilted>0</tilted></_>
    <_>
      <rects>
        <_>
          16 13 39 18 -1.</_>
        <_>
          29 19 13 6 9.</_></rects>
      <tilted>0</tilted></_>
    <_>
      <rects>
        <_>
          16 14 18 10 -1.</_>
        <_>
          25 14 9 10 2.</_></rects>
      <tilted>0</tilted></_>
    <_>
      <rects>
        <_>
          17 4 36 36 -1.</_>
        <_>
          29 16 12 12 9.</_></rects>
      <tilted>0</tilted></_>
    <_>
      <rects>
        <_>
          20 4 30 36 -1.</_>
        <_>
          30 16 10 12 9.</_></rects>
      <tilted>0</tilted></_>
    <_>
      <rects>
        <_>
          23 1 24 42 -1.</_>
        <_>
          31 15 8 14 9.</_></rects>
      <tilted>0</tilted></_>
    <_>
      <rects>
        <_>
          23 10 24 24 -1.</_>
        <_>
          31 18 8 8 9.</_></rects>
      <tilted>0</tilted></_>
    <_>
      <rects>
        <_>
          23 24 2 1 -1.</_>
        <_>
          24 24 1 1 2.</_></rects>
      <tilted>0</tilted></_>
    <_>
      <rects>
        <_>
          25 35 3 2 -1.</_>
        <_>
          25 36 3 1 2.</_></rects>
      <tilted>0</tilted></_>
    <_>
      <rects>
        <_>
          26 3 18 39 -1.</_>
        <_>
          32 16 6 13 9.</_></rects>
      <tilted>0</tilted></_>
    <_>
      <rects>
        <_>
          26 7 18 30 -1.</_>
        <_>
          32 17 6 10 9.</_></rects>
      <tilted>0</tilted></_>
    <_>
      <rects>
        <_>
          26 13 18 18 -1.</_>
        <_>
          32 19 6 6 9.</_></rects>
      <tilted>0</tilted></_>
    <_>
      <rects>
        <_>
          27 9 2 1 -1.</_>
        <_>
          28 9 1 1 2.</_></rects>
      <tilted>0</tilted></_>
    <_>
      <rects>
        <_>
          28 5 6 6 -1.</_>
        <_>
          31 5 3 6 2.</_></rects>
      <tilted>0</tilted></_>
    <_>
      <rects>
        <_>
          29 10 20 6 -1.</_>
        <_>
          34 15 10 6 2.</_></rects>
      <tilted>1</tilted></_>
    <_>
      <rects>
        <_>
          29 15 8 16 -1.</_>
        <_>
          29 15 8 8 2.</_></rects>
      <tilted>1</tilted></_>
    <_>
      <rects>
        <_>
          29 17 9 2 -1.</_>
        <_>
          32 20 3 2 3.</_></rects>
      <tilted>1</tilted></_>
    <_>
      <rects>
        <_>
          30 14 13 4 -1.</_>
        <_>
          30 14 13 2 2.</_></rects>
      <tilted>1</tilted></_>
    <_>
      <rects>
        <_>
          31 13 12 15 -1.</_>
        <_>
          35 18 4 5 9.</_></rects>
      <tilted>0</tilted></_>
    <_>
      <rects>
        <_>
          31 13 11 6 -1.</_>
        <_>
          31 13 11 3 2.</_></rects>
      <tilted>1</tilted></_>
    <_>
      <rects>
        <_>
          31 18 12 3 -1.</_>
        <_>
          35 19 4 1 9.</_></rects>
      <tilted>0</tilted></_>
    <_>
      <rects>
        <_>
          31 19 8 6 -1.</_>
        <_>
          33 19 4 6 2.</_></rects>
      <tilted>0</tilted></_>
    <_>
      <rects>
        <_>
          31 20 8 4 -1.</_>
        <_>
          31 21 8 2 2.</_></rects>
      <tilted>0</tilted></_>
    <_>
      <rects>
        <_>
          31 21 1 4 -1.</_>
        <_>
          31 23 1 2 2.</_></rects>
      <tilted>0</tilted></_>
    <_>
      <rects>
        <_>
          32 18 4 5 -1.</_>
        <_>
          34 18 2 5 2.</_></rects>
      <tilted>0</tilted></_>
    <_>
      <rects>
        <_>
          32 18 6 8 -1.</_>
        <_>
          32 20 6 4 2.</_></rects>
      <tilted>0</tilted></_>
    <_>
      <rects>
        <_>
          32 19 6 6 -1.</_>
        <_>
          34 21 2 2 9.</_></rects>
      <tilted>0</tilted></_>
    <_>
      <rects>
        <_>
          32 19 6 6 -1.</_>
        <_>
          32 19 3 3 2.</_>
        <_>
          35 22 3 3 2.</_></rects>
      <tilted>0</tilted></_>
    <_>
      <rects>
        <_>
          32 20 10 4 -1.</_>
        <_>
          32 21 10 2 2.</_></rects>
      <tilted>0</tilted></_>
    <_>
      <rects>
        <_>
          32 21 6 2 -1.</_>
        <_>
          34 21 2 2 3.</_></rects>
      <tilted>0</tilted></_>
    <_>
      <rects>
        <_>
          33 18 3 7 -1.</_>
        <_>
          34 18 1 7 3.</_></rects>
      <tilted>0</tilted></_>
    <_>
      <rects>
        <_>
          33 35 2 2 -1.</_>
        <_>
          34 35 1 2 2.</_></rects>
      <tilted>0</tilted></_>
    <_>
      <rects>
        <_>
          34 18 3 7 -1.</_>
        <_>
          35 18 1 7 3.</_></rects>
      <tilted>0</tilted></_>
    <_>
      <rects>
        <_>
          34 18 6 12 -1.</_>
        <_>
          36 22 2 4 9.</_></rects>
      <tilted>0</tilted></_>
    <_>
      <rects>
        <_>
          34 19 2 3 -1.</_>
        <_>
          34 20 2 1 3.</_></rects>
      <tilted>0</tilted></_>
    <_>
      <rects>
        <_>
          34 19 2 6 -1.</_>
        <_>
          34 21 2 2 3.</_></rects>
      <tilted>0</tilted></_>
    <_>
      <rects>
        <_>
          35 7 2 1 -1.</_>
        <_>
          36 7 1 1 2.</_></rects>
      <tilted>0</tilted></_>
    <_>
      <rects>
        <_>
          35 25 2 1 -1.</_>
        <_>
          36 25 1 1 2.</_></rects>
      <tilted>0</tilted></_>
    <_>
      <rects>
        <_>
          37 19 1 4 -1.</_>
        <_>
          36 20 1 2 2.</_></rects>
      <tilted>1</tilted></_>
    <_>
      <rects>
        <_>
          37 19 20 14 -1.</_>
        <_>
          47 19 10 14 2.</_></rects>
      <tilted>0</tilted></_>
    <_>
      <rects>
        <_>
          37 20 2 6 -1.</_>
        <_>
          37 20 1 3 2.</_>
        <_>
          38 23 1 3 2.</_></rects>
      <tilted>0</tilted></_>
    <_>
      <rects>
        <_>
          43 10 2 2 -1.</_>
        <_>
          43 11 2 1 2.</_></rects>
      <tilted>0</tilted></_>
    <_>
      <rects>
        <_>
          43 15 2 1 -1.</_>
        <_>
          44 15 1 1 2.</_></rects>
      <tilted>0</tilted></_>
    <_>
      <rects>
        <_>
          44 31 2 3 -1.</_>
        <_>
          45 31 1 3 2.</_></rects>
      <tilted>0</tilted></_>
    <_>
      <rects>
        <_>
          45 35 2 1 -1.</_>
        <_>
          46 35 1 1 2.</_></rects>
      <tilted>0</tilted></_>
    <_>
      <rects>
        <_>
          49 7 7 14 -1.</_>
        <_>
          49 7 7 7 2.</_></rects>
      <tilted>1</tilted></_>
    <_>
      <rects>
        <_>
          68 0 1 6 -1.</_>
        <_>
          68 3 1 3 2.</_></rects>
      <tilted>0</tilted></_></features></cascade>
</opencv_storage>
